{
  "metadata": {
    "version": "0.2.0",
    "exported": "2025-07-10T00:52:23.586Z",
    "model": "all",
    "format": "json"
  },
  "models": {
    "attention": {
      "layers": 5,
      "parameters": 540454,
      "weights": [
        -0.4564870272639736,
        0.3699225957119936,
        0.378285194411911,
        0.21489388188482805,
        -0.1366273114366503,
        0.13335112116611825,
        -0.010147749329517675,
        0.40737464607151885,
        0.43502181509868754,
        -0.3720222526043857,
        0.2377237618304775,
        0.046447049818955755,
        0.1582289485834869,
        -0.05444701694507503,
        -0.09381619214087977,
        0.16672489016873904,
        -0.2432370721680599,
        -0.2676738722138883,
        -0.2669914656348644,
        -0.0686213454735054,
        -0.35954469897037966,
        -0.19619369490042304,
        -0.38214725996466115,
        0.07530376346206369,
        -0.010742194799191918,
        0.18103292590376263,
        0.10292080475254584,
        -0.2914029353275098,
        0.13139796937412807,
        -0.24586429177257707,
        0.42269087424447993,
        -0.272093702394683,
        0.33817243622520743,
        -0.26911904298847267,
        0.039014028599692496,
        0.395128052566325,
        -0.1292860274026828,
        -0.464149391777281,
        0.3888401632460836,
        -0.386830811217205,
        0.26232722230678895,
        -0.05937305880839672,
        0.2842255212168838,
        -0.13932944631353683,
        -0.3299496475960517,
        -0.4543953554529476,
        -0.4172978154106348,
        0.3571390835172561,
        0.06901888546019763,
        0.09637449049766511,
        -0.2088762207279926,
        -0.27521253579621474,
        0.29480322844163465,
        -0.3189696238043047,
        -0.09114783371703594,
        0.1176588353342285,
        -0.1767738293658383,
        -0.02193943096361428,
        0.3708174182996353,
        0.3909482064676868,
        -0.35376523454132736,
        0.4488464834238386,
        0.16507532857538698,
        0.2732834607254715,
        0.4942137679090244,
        0.008530703078807544,
        -0.021971460992175507,
        0.463744766530932,
        -0.046795490746051716,
        0.49132329200405644,
        -0.018833285693175217,
        -0.23343208299881768,
        0.19670624159925065,
        0.34167827717986476,
        -0.2941090680722358,
        -0.2919557287542842,
        -0.354390961726454,
        0.12983032372772052,
        0.24357524240734052,
        0.30147681492217626,
        -0.30711361668660087,
        0.35388852973957263,
        0.34083643402854213,
        -0.2939270468918196,
        -0.37537217307574466,
        -0.499724129584761,
        0.2802187019440927,
        0.03749576872960314,
        -0.16001008768847558,
        -0.21345310295229436,
        0.1188864113026904,
        0.36062169605733274,
        0.08413312943501383,
        -0.39151271334050497,
        0.3959252140911145,
        0.2590914055711513,
        -0.4975060039797987,
        0.019885215864531958,
        0.005892755562301399,
        -0.3608361300043823
      ],
      "biases": [
        -0.15088248462850617,
        -0.4499293015420689,
        0.2664975606451845,
        0.35344530016892617,
        0.2619861202906695,
        0.045068451617156446,
        -0.0172346592613013,
        -0.020257289144792523,
        0.4649070455976423,
        -0.32308952481610187,
        0.06960180942977745,
        -0.08036627249715833,
        -0.3874247193203382,
        0.06073176497102595,
        -0.14003040665721644,
        0.33391082604371736,
        -0.3034086548462762,
        0.3843562627694077,
        -0.37589516492904274,
        -0.24809089402496753,
        -0.06707320296086094,
        0.3304927322068041,
        0.202495460212067,
        0.01753257363570282,
        0.2141557342716789,
        0.3829333561736241,
        0.4108505311735233,
        0.31567357526595585,
        -0.12680788039162527,
        0.3182220897601269,
        0.00965822326217225,
        -0.10940096483395667,
        -0.28052820560419134,
        -0.34906214594422535,
        0.4662830726352767,
        0.3473001760818162,
        -0.4123544423616867,
        -0.022146617608738373,
        -0.14293763445460117,
        0.03182025677533917,
        0.15863483949405777,
        -0.21178705550602928,
        0.019548343649989253,
        -0.16373448313182304,
        0.3619363381073162,
        -0.05340493055897122,
        0.18664705810735804,
        0.15009742786186475,
        0.47331439729890623,
        -0.08819923262489571
      ],
      "performance": {
        "accuracy": "87.51",
        "loss": "0.0169"
      }
    },
    "lstm": {
      "layers": 4,
      "parameters": 387855,
      "weights": [
        0.022482140575973864,
        0.17818193227266166,
        -0.0871668746925851,
        -0.16157381862057196,
        -0.18699581214352956,
        0.46090280427535846,
        -0.08244087583120718,
        -0.23116864459927666,
        0.3501803835724415,
        0.15905513882321087,
        -0.23297319315068932,
        -0.46967566982644593,
        -0.03920862524178337,
        0.07586763861956647,
        -0.25077189815151657,
        0.2955799582597427,
        -0.3547381380161394,
        -0.45765675402850614,
        0.4927191519420844,
        0.23594537776675906,
        -0.24934148675092005,
        -0.4609143779157472,
        -0.24430787033721724,
        -0.4187029154358093,
        -0.03575275680820633,
        0.05697213695840864,
        0.4613621301668438,
        0.3691100659556166,
        -0.04178984595002144,
        -0.10263731398771436,
        0.2581100253878139,
        0.0835365293460606,
        -0.4510641861870901,
        0.24923636305914276,
        -0.3199893695426803,
        0.23673715314794053,
        0.020995441557507988,
        -0.10681019400689529,
        -0.3374338408857782,
        0.10842857833659192,
        -0.09494545034629742,
        -0.1719539540154964,
        -0.371328463436037,
        -0.20822748833610283,
        -0.1972652488598845,
        0.019457520820116425,
        0.286569237781491,
        -0.10830913023837008,
        0.1002313144014455,
        -0.0744230071432257,
        0.2660163870378056,
        0.3993932375848146,
        -0.2208026175532105,
        0.11664178809534032,
        0.4491886088420469,
        0.29019101216539966,
        -0.402143939523802,
        -0.2087934493174004,
        -0.29241592872579925,
        0.25889632009694696,
        0.4618169075600078,
        -0.08439345745944316,
        -0.1042296918786898,
        0.14850910435908982,
        -0.16776805075502899,
        -0.17707435710566233,
        0.10917742379644269,
        -0.13762741274629886,
        -0.02014115548971862,
        -0.11495265152540113,
        0.4169356762253511,
        -0.20563843685295957,
        0.13269591337121156,
        0.07971411887281477,
        -0.3667006382901674,
        0.38425175294427505,
        0.47098114752568354,
        0.19830938057567105,
        0.45511040037018335,
        0.23408043275941837,
        0.4949429863374808,
        -0.35463900844042384,
        0.3306001495233093,
        0.42085505750041863,
        0.17216367416752631,
        -0.48642095698225507,
        -0.2578574928514057,
        -0.49959656660478946,
        -0.20870465437980634,
        0.14170872364596288,
        -0.2677511174086942,
        -0.33235517616931154,
        -0.2407443133398557,
        -0.3476028071165367,
        -0.4637886974523848,
        0.2078080901198569,
        0.3244653266878794,
        0.020510064152112983,
        -0.2606614329462449,
        0.34813158265403277
      ],
      "biases": [
        -0.19567396832821027,
        -0.4390336367345056,
        0.040919754673530484,
        0.1640613284496677,
        0.2830963041609915,
        -0.06117712621641158,
        0.3453271837375753,
        0.05271138498168071,
        0.27279324121774806,
        0.043978543911525,
        -0.15298437035782886,
        0.46727206001267674,
        -0.24085606023761752,
        0.26342945858803213,
        0.3132542749343883,
        -0.2821245023373282,
        0.12120467095685616,
        -0.15285361552522336,
        0.45309104963317637,
        0.18803347414711924,
        -0.3786975905191161,
        0.049204962196649715,
        0.4170688955642978,
        0.19026384824364606,
        0.48028631532361765,
        0.3448498929085049,
        0.2260182627366747,
        0.42413372406821215,
        0.4279437925538456,
        -0.08763451476723083,
        0.21907332354751774,
        0.1786395889917196,
        -0.27251646687690734,
        0.40073221226549216,
        -0.005523963715549751,
        0.4874768726451566,
        0.02564299330419262,
        -0.2306256002370355,
        0.08624736426484936,
        0.25694919524349036,
        0.47571750642161725,
        0.27027189603432134,
        0.43603251287978595,
        -0.07522555903179495,
        0.2611035415724823,
        -0.014648816391821695,
        0.3011031690931578,
        -0.10038043958810561,
        -0.21676315187858664,
        0.3544171994804013
      ],
      "performance": {
        "accuracy": "85.05",
        "loss": "0.0243"
      }
    },
    "transformer": {
      "layers": 6,
      "parameters": 441636,
      "weights": [
        0.23643478066204593,
        -0.3392117308205249,
        -0.36522940211660204,
        -0.3342732033849001,
        0.16290398004882478,
        0.09954131889897821,
        0.2087460187028698,
        -0.4873829860277732,
        0.27019315370401786,
        0.27773988294969953,
        0.12769449577128356,
        0.4903895409191883,
        -0.45022078532787635,
        0.08823614178007011,
        0.1455704269113136,
        -0.1702920907607981,
        0.25407554961707257,
        0.32744756655202867,
        0.17079397727807155,
        0.2996943838993824,
        0.33826895877628815,
        0.4872255207061249,
        -0.47629175512031563,
        0.2841363186419459,
        -0.14887564288852362,
        0.4073124495835785,
        -0.3595737729551156,
        -0.07439593632557773,
        -0.09996638752972142,
        0.0323031557963509,
        0.037663388782040785,
        0.11682291144336521,
        0.31284854018764796,
        -0.13588010483343038,
        0.12951125764767424,
        -0.4566754144498213,
        -0.4339467609088399,
        -0.23678191350015387,
        -0.1672931878584898,
        0.06368392985968185,
        0.0012557828813377636,
        0.4420676087984561,
        -0.2128295633062598,
        -0.11303223867552781,
        -0.4547718609677047,
        -0.08652758534819549,
        0.13283106698555236,
        0.3801089723544071,
        -0.0459961632907655,
        0.4352319809192722,
        0.49880413938656254,
        -0.42734253301140934,
        -0.19567625189608084,
        0.32389623560349845,
        -0.3443260524208782,
        0.1783495361901848,
        0.36554102222398277,
        -0.4430806046908289,
        -0.0784025523244436,
        -0.469833089608543,
        0.19246660036424235,
        -0.36505918741868726,
        0.15054931736842336,
        -0.30069390357512304,
        0.11220729779969818,
        -0.1948461673982873,
        -0.46212043097147326,
        -0.43048401623837385,
        -0.37662028897391653,
        0.1427642902456856,
        0.47060814657101324,
        -0.1318956600556649,
        -0.33193057157931594,
        0.1807186433455159,
        0.25606728740686546,
        -0.17248193955793778,
        -0.3101087050574205,
        0.34847089389561337,
        -0.3724744575808696,
        0.4381309792984651,
        -0.1834945075494192,
        -0.11525669539513173,
        -0.08938248716336572,
        -0.3669205711016106,
        0.08776043237610631,
        0.40949039007329624,
        -0.19399092301767928,
        -0.21542514192067364,
        -0.39691911780942624,
        0.21750830350505224,
        -0.4686432304812027,
        0.09061910612751234,
        0.3500371308335286,
        -0.374228068342906,
        0.08371465501966435,
        0.1946858188792966,
        0.4161622292325917,
        -0.31031901584044297,
        -0.07374814567118082,
        -0.2685480831124094
      ],
      "biases": [
        0.4857145147568347,
        0.33182264300842257,
        0.04180605806735338,
        0.14660286706650227,
        -0.08397194477440784,
        -0.48257949415188195,
        -0.13206157797598905,
        0.1894342797940216,
        0.2538945892315416,
        0.04005551093874282,
        0.27500099541883416,
        -0.016432378476873843,
        -0.052961610322852515,
        -0.1580148496607341,
        -0.06488629681050395,
        -0.4090208785387539,
        -0.14168082011196792,
        -0.4658815542725494,
        0.1813591706679083,
        -0.3891073788011621,
        -0.3519870527478828,
        -0.14028556385623614,
        -0.30770322271482375,
        -0.25544508373523644,
        -0.17373831749751423,
        -0.4679868942240526,
        -0.17927884604974254,
        0.44561751570127606,
        -0.29936819368232404,
        0.27651632182597163,
        -0.08104960674709427,
        0.017544169888450645,
        -0.0038513465579090855,
        -0.1908820027666016,
        0.4784321535177998,
        -0.4244894208164913,
        -0.20178703708742063,
        0.49018307146533013,
        0.21838816462252808,
        -0.23859394476539242,
        0.14244238354996597,
        0.11306601503210989,
        -0.42124996488913946,
        -0.20476713622844578,
        0.2082493207188616,
        -0.05743890275992647,
        -0.33615351563314966,
        0.11980638190645077,
        0.40543476518496013,
        -0.2568131354047327
      ],
      "performance": {
        "accuracy": "93.08",
        "loss": "0.0389"
      }
    },
    "feedforward": {
      "layers": 7,
      "parameters": 781286,
      "weights": [
        -0.28747690332241915,
        -0.08815837587266184,
        -0.08532795813829397,
        -0.2014674771833096,
        -0.28529345209924006,
        0.4163686707847549,
        0.03760282218008815,
        0.3958000570499054,
        -0.15860173311620285,
        -0.03710201163103499,
        -0.48819337651314276,
        -0.159067852999504,
        0.1124118308175186,
        0.033545882947256356,
        0.30109093769933293,
        0.30078262486865137,
        -0.1401708889577682,
        -0.23573305330613037,
        0.3317664616435483,
        0.16816094343910382,
        -0.43374235225882596,
        -0.1451748753036768,
        -0.48577710542364705,
        -0.22193311230781054,
        0.1826882261375229,
        0.23365918650712247,
        -0.17220016988168152,
        0.024252346743572906,
        0.3245701821446443,
        -0.16449022257850432,
        0.13662888298619547,
        0.3433602009898469,
        -0.0710990313379618,
        -0.4308013116872462,
        -0.02478754247421966,
        -0.2286453035645546,
        -0.45352384857366523,
        -0.05870196297005492,
        0.11969207493742062,
        0.3892544573074206,
        -0.05654024494896648,
        -0.1146416736189273,
        0.04513640360941373,
        -0.3632952217745218,
        -0.006479878374906045,
        -0.17309605375416193,
        0.3305530517384814,
        -0.4475608419816033,
        0.11751271084708703,
        0.2627029490755801,
        0.19556771929870442,
        -0.4476841109779761,
        -0.20040381524062334,
        -0.025674435900316706,
        -0.059940544203372026,
        0.14686950125158194,
        -0.11759356183114256,
        0.23594277729446045,
        -0.4209945454604105,
        -0.46737293898077303,
        0.4843499546947865,
        -0.4159935833205519,
        0.10005622724217611,
        -0.2452517984578253,
        -0.3676047356299339,
        -0.37762349865867195,
        -0.2490466243783469,
        0.4077889579614207,
        -0.10960366778461106,
        -0.3541355511356241,
        -0.12975667769527188,
        -0.34976990618022774,
        0.40994245572983323,
        0.4539225374767608,
        -0.3194824219902912,
        0.03127197269941262,
        -0.30943708540872583,
        -0.06507911178154102,
        0.40617701057154054,
        0.04032063623889348,
        0.2771911226964989,
        -0.29415256153555625,
        0.10247128106927295,
        -0.005398295776978479,
        0.4369490200154982,
        -0.13195755356425787,
        -0.029280449549951237,
        -0.1966016986070429,
        -0.4265037588881062,
        0.23890684653443994,
        0.28453247583650354,
        0.155100681956287,
        0.4152991199854339,
        0.34171302366122314,
        0.36591230357584936,
        -0.4922758288796578,
        0.20884196885276052,
        0.3865695402400746,
        -0.24211512994219464,
        -0.37115842102305474
      ],
      "biases": [
        0.30194767550572266,
        -0.3205366431383596,
        -0.49235989093360444,
        -0.3855231770800165,
        0.21214099738466996,
        -0.4788834236547519,
        -0.4784514053365645,
        0.30827174244261246,
        -0.4563165007850576,
        0.35076345319966684,
        -0.3925700441948592,
        -0.40586282577331745,
        -0.3073152487322861,
        0.40740627284992814,
        0.2091534643322377,
        -0.37519654529043867,
        0.01562788266243742,
        -0.20733775892487483,
        0.3776779390250251,
        -0.0008505780488314851,
        -0.39868813448972196,
        0.45252032112283724,
        -0.21990863349554712,
        -0.4651400165157529,
        0.4102589666692378,
        0.02080051820928608,
        0.4653938540462741,
        0.13597843829553358,
        -0.0803042358703423,
        -0.35451115085572305,
        -0.25458616734846085,
        -0.45895516061075003,
        0.14970643166755182,
        0.2925814866103702,
        -0.12094401673617772,
        -0.3540159991531615,
        0.3648733614219286,
        0.41428626432335225,
        -0.2578363369237413,
        0.18573265917914616,
        0.11316526613236921,
        0.10844691503642512,
        0.1630762436035813,
        0.16349310970467568,
        -0.1812452888187095,
        0.4539939223246401,
        0.3107767599546527,
        0.18712265245399373,
        0.3860182178804257,
        0.4562967689610813
      ],
      "performance": {
        "accuracy": "87.69",
        "loss": "0.0275"
      }
    }
  }
}